<?xml version="1.0"?>
<opencv_storage>
<cascade>
  <stageType>BOOST</stageType>
  <featureType>HAAR</featureType>
  <height>20</height>
  <width>20</width>
  <stageParams>
    <boostType>GAB</boostType>
    <minHitRate>9.9500000476837158e-01</minHitRate>
    <maxFalseAlarm>3.0000001192092896e-01</maxFalseAlarm>
    <weightTrimRate>9.4999999999999996e-01</weightTrimRate>
    <maxDepth>1</maxDepth>
    <maxWeakCount>100</maxWeakCount></stageParams>
  <featureParams>
    <maxCatCount>0</maxCatCount>
    <featSize>1</featSize>
    <mode>BASIC</mode></featureParams>
  <stageNum>11</stageNum>
  <stages>
    <!-- stage 0 -->
    <_>
      <maxWeakCount>2</maxWeakCount>
      <stageThreshold>-1.7905357480049133e-01</stageThreshold>
      <weakClassifiers>
        <_>
          <internalNodes>
            0 -1 36 1.6529121994972229e-01</internalNodes>
          <leafValues>
            -8.5491073131561279e-01 8.4734511375427246e-01</leafValues></_>
        <_>
          <internalNodes>
            0 -1 72 -1.0621710866689682e-01</internalNodes>
          <leafValues>
            6.7585712671279907e-01 -9.2237943410873413e-01</leafValues></_></weakClassifiers></_>
    <!-- stage 1 -->
    <_>
      <maxWeakCount>5</maxWeakCount>
      <stageThreshold>-7.8860533237457275e-01</stageThreshold>
      <weakClassifiers>
        <_>
          <internalNodes>
            0 -1 87 1.0163884609937668e-01</internalNodes>
          <leafValues>
            -8.3291459083557129e-01 6.6035854816436768e-01</leafValues></_>
        <_>
          <internalNodes>
            0 -1 37 2.1768325567245483e-01</internalNodes>
          <leafValues>
            -6.8391400575637817e-01 5.1624035835266113e-01</leafValues></_>
        <_>
          <internalNodes>
            0 -1 146 -6.4896047115325928e-02</internalNodes>
          <leafValues>
            3.1769040226936340e-01 -8.7393426895141602e-01</leafValues></_>
        <_>
          <internalNodes>
            0 -1 82 -9.7011536359786987e-02</internalNodes>
          <leafValues>
            2.7955701947212219e-01 -8.9314424991607666e-01</leafValues></_>
        <_>
          <internalNodes>
            0 -1 16 4.2995370924472809e-02</internalNodes>
          <leafValues>
            -8.6775469779968262e-01 1.3097579777240753e-01</leafValues></_></weakClassifiers></_>
    <!-- stage 2 -->
    <_>
      <maxWeakCount>11</maxWeakCount>
      <stageThreshold>-9.4869518280029297e-01</stageThreshold>
      <weakClassifiers>
        <_>
          <internalNodes>
            0 -1 134 -1.1180225014686584e-01</internalNodes>
          <leafValues>
            3.4870076179504395e-01 -6.8533772230148315e-01</leafValues></_>
        <_>
          <internalNodes>
            0 -1 6 7.0546790957450867e-02</internalNodes>
          <leafValues>
            -8.0754733085632324e-01 2.2620494663715363e-01</leafValues></_>
        <_>
          <internalNodes>
            0 -1 64 -5.6726191192865372e-02</internalNodes>
          <leafValues>
            2.3288173973560333e-01 -8.9181178808212280e-01</leafValues></_>
        <_>
          <internalNodes>
            0 -1 10 5.0954293459653854e-02</internalNodes>
          <leafValues>
            -7.8205472230911255e-01 1.7060594260692596e-01</leafValues></_>
        <_>
          <internalNodes>
            0 -1 7 1.8535673618316650e-01</internalNodes>
          <leafValues>
            -6.6089600324630737e-01 2.2563549876213074e-01</leafValues></_>
        <_>
          <internalNodes>
            0 -1 112 1.0322468588128686e-03</internalNodes>
          <leafValues>
            2.1036362648010254e-01 -6.8196094036102295e-01</leafValues></_>
        <_>
          <internalNodes>
            0 -1 107 4.5788407325744629e-02</internalNodes>
          <leafValues>
            -8.7791943550109863e-01 1.6533182561397552e-01</leafValues></_>
        <_>
          <internalNodes>
            0 -1 165 1.5712421387434006e-02</internalNodes>
          <leafValues>
            1.0272900760173798e-01 -8.6616969108581543e-01</leafValues></_>
        <_>
          <internalNodes>
            0 -1 67 1.3800712302327156e-02</internalNodes>
          <leafValues>
            1.2769767642021179e-01 -8.9670449495315552e-01</leafValues></_>
        <_>
          <internalNodes>
            0 -1 122 -1.2719213264063001e-03</internalNodes>
          <leafValues>
            -7.5475484132766724e-01 1.4668172597885132e-01</leafValues></_>
        <_>
          <internalNodes>
            0 -1 31 -1.4386828057467937e-02</internalNodes>
          <leafValues>
            -8.3701735734939575e-01 1.2442244589328766e-01</leafValues></_></weakClassifiers></_>
    <!-- stage 3 -->
    <_>
      <maxWeakCount>17</maxWeakCount>
      <stageThreshold>-1.1306318044662476e+00</stageThreshold>
      <weakClassifiers>
        <_>
          <internalNodes>
            0 -1 99 8.4747143089771271e-02</internalNodes>
          <leafValues>
            -6.7908900976181030e-01 2.4905087053775787e-01</leafValues></_>
        <_>
          <internalNodes>
            0 -1 35 1.2868601083755493e-01</internalNodes>
          <leafValues>
            -7.4315619468688965e-01 1.7581513524055481e-01</leafValues></_>
        <_>
          <internalNodes>
            0 -1 131 -1.7532248748466372e-03</internalNodes>
          <leafValues>
            -6.2024587392807007e-01 2.3299476504325867e-01</leafValues></_>
        <_>
          <internalNodes>
            0 -1 113 1.5198488254100084e-03</internalNodes>
          <leafValues>
            1.8719102442264557e-01 -7.9700314998626709e-01</leafValues></_>
        <_>
          <internalNodes>
            0 -1 32 -1.8488250672817230e-01</internalNodes>
          <leafValues>
            -9.3779844045639038e-01 9.6330456435680389e-02</leafValues></_>
        <_>
          <internalNodes>
            0 -1 39 2.6707299053668976e-02</internalNodes>
          <leafValues>
            1.5709652006626129e-01 -6.6253435611724854e-01</leafValues></_>
        <_>
          <internalNodes>
            0 -1 26 6.8433612585067749e-02</internalNodes>
          <leafValues>
            -4.1610479354858398e-01 2.7047747373580933e-01</leafValues></_>
        <_>
          <internalNodes>
            0 -1 12 -1.2186637148261070e-02</internalNodes>
          <leafValues>
            -7.9771411418914795e-01 1.2497241795063019e-01</leafValues></_>
        <_>
          <internalNodes>
            0 -1 1 1.5904463827610016e-02</internalNodes>
          <leafValues>
            1.2629398703575134e-01 -8.1608492136001587e-01</leafValues></_>
        <_>
          <internalNodes>
            0 -1 89 9.4110984355211258e-03</internalNodes>
          <leafValues>
            2.2623522579669952e-01 -4.8597317934036255e-01</leafValues></_>
        <_>
          <internalNodes>
            0 -1 92 5.2512483671307564e-04</internalNodes>
          <leafValues>
            -7.6174986362457275e-01 1.2307316064834595e-01</leafValues></_>
        <_>
          <internalNodes>
            0 -1 120 1.5046339249238372e-03</internalNodes>
          <leafValues>
            2.2487488389015198e-01 -5.0915020704269409e-01</leafValues></_>
        <_>
          <internalNodes>
            0 -1 84 2.5895380973815918e-01</internalNodes>
          <leafValues>
            -3.3704519271850586e-01 4.2523050308227539e-01</leafValues></_>
        <_>
          <internalNodes>
            0 -1 141 6.3426152337342501e-04</internalNodes>
          <leafValues>
            -3.5777360200881958e-01 3.4019136428833008e-01</leafValues></_>
        <_>
          <internalNodes>
            0 -1 138 1.8406637245789170e-03</internalNodes>
          <leafValues>
            1.0917863994836807e-01 -8.6458557844161987e-01</leafValues></_>
        <_>
          <internalNodes>
            0 -1 40 -1.4233274385333061e-02</internalNodes>
          <leafValues>
            -8.8682603836059570e-01 9.6789501607418060e-02</leafValues></_>
        <_>
          <internalNodes>
            0 -1 17 3.2131284475326538e-01</internalNodes>
          <leafValues>
            -2.1720449626445770e-01 5.8008849620819092e-01</leafValues></_></weakClassifiers></_>
    <!-- stage 4 -->
    <_>
      <maxWeakCount>18</maxWeakCount>
      <stageThreshold>-1.0366768836975098e+00</stageThreshold>
      <weakClassifiers>
        <_>
          <internalNodes>
            0 -1 111 -2.9890481382608414e-03</internalNodes>
          <leafValues>
            -8.6264657974243164e-01 1.7149516940116882e-01</leafValues></_>
        <_>
          <internalNodes>
            0 -1 23 -6.8520851433277130e-02</internalNodes>
          <leafValues>
            1.5749266743659973e-01 -7.0244818925857544e-01</leafValues></_>
        <_>
          <internalNodes>
            0 -1 147 -4.5964471995830536e-02</internalNodes>
          <leafValues>
            1.0827413946390152e-01 -9.2653453350067139e-01</leafValues></_>
        <_>
          <internalNodes>
            0 -1 108 9.5589854754507542e-04</internalNodes>
          <leafValues>
            1.7444728314876556e-01 -6.0126268863677979e-01</leafValues></_>
        <_>
          <internalNodes>
            0 -1 48 1.4738255739212036e-01</internalNodes>
          <leafValues>
            -4.4887223839759827e-01 2.8387728333473206e-01</leafValues></_>
        <_>
          <internalNodes>
            0 -1 75 4.5306723564863205e-02</internalNodes>
          <leafValues>
            -7.9235953092575073e-01 1.4567708969116211e-01</leafValues></_>
        <_>
          <internalNodes>
            0 -1 57 1.2207768857479095e-01</internalNodes>
          <leafValues>
            9.9082104861736298e-02 -8.8031953573226929e-01</leafValues></_>
        <_>
          <internalNodes>
            0 -1 18 1.9329716265201569e-01</internalNodes>
          <leafValues>
            -1.6386242210865021e-01 7.4881452322006226e-01</leafValues></_>
        <_>
          <internalNodes>
            0 -1 80 3.0351746082305908e-01</internalNodes>
          <leafValues>
            -2.1606720983982086e-01 5.0394546985626221e-01</leafValues></_>
        <_>
          <internalNodes>
            0 -1 83 -1.1006837710738182e-02</internalNodes>
          <leafValues>
            -9.2119532823562622e-01 1.3015390932559967e-01</leafValues></_>
        <_>
          <internalNodes>
            0 -1 130 6.7485356703400612e-04</internalNodes>
          <leafValues>
            8.7418101727962494e-02 -8.5199809074401855e-01</leafValues></_>
        <_>
          <internalNodes>
            0 -1 156 -6.9296255707740784e-02</internalNodes>
          <leafValues>
            -8.1198543310165405e-01 9.6726395189762115e-02</leafValues></_>
        <_>
          <internalNodes>
            0 -1 166 1.3319119811058044e-02</internalNodes>
          <leafValues>
            8.9049868285655975e-02 -8.8157016038894653e-01</leafValues></_>
        <_>
          <internalNodes>
            0 -1 129 3.8187786936759949e-02</internalNodes>
          <leafValues>
            -5.8577173948287964e-01 1.4675790071487427e-01</leafValues></_>
        <_>
          <internalNodes>
            0 -1 116 1.8057206179946661e-03</internalNodes>
          <leafValues>
            -2.8578084707260132e-01 3.6505380272865295e-01</leafValues></_>
        <_>
          <internalNodes>
            0 -1 118 1.7956426367163658e-02</internalNodes>
          <leafValues>
            1.4720535278320312e-01 -6.9852900505065918e-01</leafValues></_>
        <_>
          <internalNodes>
            0 -1 70 6.1888058553449810e-05</internalNodes>
          <leafValues>
            -3.2649272680282593e-01 2.7162072062492371e-01</leafValues></_>
        <_>
          <internalNodes>
            0 -1 42 1.6487916931509972e-02</internalNodes>
          <leafValues>
            -6.4394265413284302e-01 1.2934848666191101e-01</leafValues></_></weakClassifiers></_>
    <!-- stage 5 -->
    <_>
      <maxWeakCount>18</maxWeakCount>
      <stageThreshold>-1.0423545837402344e+00</stageThreshold>
      <weakClassifiers>
        <_>
          <internalNodes>
            0 -1 135 2.4031316861510277e-03</internalNodes>
          <leafValues>
            2.5702810287475586e-01 -5.7657659053802490e-01</leafValues></_>
        <_>
          <internalNodes>
            0 -1 11 -1.7190005630254745e-02</internalNodes>
          <leafValues>
            -8.1239330768585205e-01 1.3898684084415436e-01</leafValues></_>
        <_>
          <internalNodes>
            0 -1 22 -9.2813167721033096e-03</internalNodes>
          <leafValues>
            -8.1496059894561768e-01 1.3238185644149780e-01</leafValues></_>
        <_>
          <internalNodes>
            0 -1 100 1.3882458209991455e-01</internalNodes>
          <leafValues>
            -5.2658873796463013e-01 2.1946589648723602e-01</leafValues></_>
        <_>
          <internalNodes>
            0 -1 126 -1.0897124884650111e-03</internalNodes>
          <leafValues>
            -9.1752111911773682e-01 8.7981201708316803e-02</leafValues></_>
        <_>
          <internalNodes>
            0 -1 136 1.5083367470651865e-03</internalNodes>
          <leafValues>
            1.9222943484783173e-01 -7.2478234767913818e-01</leafValues></_>
        <_>
          <internalNodes>
            0 -1 71 2.1412226557731628e-01</internalNodes>
          <leafValues>
            -2.2672498226165771e-01 6.7392486333847046e-01</leafValues></_>
        <_>
          <internalNodes>
            0 -1 162 1.5148725360631943e-02</internalNodes>
          <leafValues>
            1.2948340177536011e-01 -9.0395587682723999e-01</leafValues></_>
        <_>
          <internalNodes>
            0 -1 56 3.1088727712631226e-01</internalNodes>
          <leafValues>
            -2.5044283270835876e-01 5.4163545370101929e-01</leafValues></_>
        <_>
          <internalNodes>
            0 -1 123 -7.8146404121071100e-04</internalNodes>
          <leafValues>
            -8.9312988519668579e-01 1.5686886012554169e-01</leafValues></_>
        <_>
          <internalNodes>
            0 -1 20 1.0105516016483307e-01</internalNodes>
          <leafValues>
            -7.4640458822250366e-01 1.2592573463916779e-01</leafValues></_>
        <_>
          <internalNodes>
            0 -1 85 4.7627373714931309e-04</internalNodes>
          <leafValues>
            2.6600104570388794e-01 -3.6514192819595337e-01</leafValues></_>
        <_>
          <internalNodes>
            0 -1 77 2.9700154066085815e-01</internalNodes>
          <leafValues>
            -2.4146254360675812e-01 4.8644250631332397e-01</leafValues></_>
        <_>
          <internalNodes>
            0 -1 62 9.9634984508156776e-03</internalNodes>
          <leafValues>
            2.0934921503067017e-01 -4.8274692893028259e-01</leafValues></_>
        <_>
          <internalNodes>
            0 -1 88 3.6955446004867554e-02</internalNodes>
          <leafValues>
            -3.2364898920059204e-01 3.2979574799537659e-01</leafValues></_>
        <_>
          <internalNodes>
            0 -1 58 -1.4379951357841492e-01</internalNodes>
          <leafValues>
            -8.1770420074462891e-01 1.1778501421213150e-01</leafValues></_>
        <_>
          <internalNodes>
            0 -1 55 2.0935629308223724e-01</internalNodes>
          <leafValues>
            -1.5233716368675232e-01 6.6585296392440796e-01</leafValues></_>
        <_>
          <internalNodes>
            0 -1 2 1.2940402142703533e-02</internalNodes>
          <leafValues>
            1.3496994972229004e-01 -7.7355372905731201e-01</leafValues></_></weakClassifiers></_>
    <!-- stage 6 -->
    <_>
      <maxWeakCount>18</maxWeakCount>
      <stageThreshold>-8.3815765380859375e-01</stageThreshold>
      <weakClassifiers>
        <_>
          <internalNodes>
            0 -1 54 -1.0094847530126572e-02</internalNodes>
          <leafValues>
            -6.1111110448837280e-01 1.6244725883007050e-01</leafValues></_>
        <_>
          <internalNodes>
            0 -1 125 1.6704495064914227e-03</internalNodes>
          <leafValues>
            9.5528274774551392e-02 -8.8942563533782959e-01</leafValues></_>
        <_>
          <internalNodes>
            0 -1 45 1.3165515661239624e-01</internalNodes>
          <leafValues>
            -5.9268379211425781e-01 2.2846257686614990e-01</leafValues></_>
        <_>
          <internalNodes>
            0 -1 124 -1.3974433531984687e-03</internalNodes>
          <leafValues>
            -6.8145823478698730e-01 1.4361296594142914e-01</leafValues></_>
        <_>
          <internalNodes>
            0 -1 74 3.7130331993103027e-01</internalNodes>
          <leafValues>
            -3.3092325925827026e-01 4.5975080132484436e-01</leafValues></_>
        <_>
          <internalNodes>
            0 -1 97 3.0462797731161118e-03</internalNodes>
          <leafValues>
            -2.5987133383750916e-01 4.5316529273986816e-01</leafValues></_>
        <_>
          <internalNodes>
            0 -1 151 6.9015786051750183e-02</internalNodes>
          <leafValues>
            -2.1173623204231262e-01 5.4855358600616455e-01</leafValues></_>
        <_>
          <internalNodes>
            0 -1 127 2.4315211921930313e-03</internalNodes>
          <leafValues>
            1.2567329406738281e-01 -8.7428098917007446e-01</leafValues></_>
        <_>
          <internalNodes>
            0 -1 79 -7.8276649117469788e-02</internalNodes>
          <leafValues>
            5.4550343751907349e-01 -1.7258661985397339e-01</leafValues></_>
        <_>
          <internalNodes>
            0 -1 163 1.0642613284289837e-02</internalNodes>
          <leafValues>
            1.3005404174327850e-01 -8.1637686491012573e-01</leafValues></_>
        <_>
          <internalNodes>
            0 -1 158 2.6032797992229462e-02</internalNodes>
          <leafValues>
            8.5645422339439392e-02 -8.9673477411270142e-01</leafValues></_>
        <_>
          <internalNodes>
            0 -1 140 -5.3322594612836838e-04</internalNodes>
          <leafValues>
            -5.0336062908172607e-01 1.9188988208770752e-01</leafValues></_>
        <_>
          <internalNodes>
            0 -1 65 2.7521508745849133e-03</internalNodes>
          <leafValues>
            -3.3803224563598633e-01 2.8474548459053040e-01</leafValues></_>
        <_>
          <internalNodes>
            0 -1 6 6.7426204681396484e-02</internalNodes>
          <leafValues>
            -7.3009961843490601e-01 1.3246217370033264e-01</leafValues></_>
        <_>
          <internalNodes>
            0 -1 0 -6.6845850087702274e-03</internalNodes>
          <leafValues>
            -6.5027141571044922e-01 1.4053347706794739e-01</leafValues></_>
        <_>
          <internalNodes>
            0 -1 61 -9.7779020667076111e-02</internalNodes>
          <leafValues>
            3.5621500015258789e-01 -2.6937660574913025e-01</leafValues></_>
        <_>
          <internalNodes>
            0 -1 69 2.7680382132530212e-01</internalNodes>
          <leafValues>
            -2.5469526648521423e-01 4.6965482831001282e-01</leafValues></_>
        <_>
          <internalNodes>
            0 -1 159 -1.8235348165035248e-02</internalNodes>
          <leafValues>
            -7.7061796188354492e-01 1.3756169378757477e-01</leafValues></_></weakClassifiers></_>
    <!-- stage 7 -->
    <_>
      <maxWeakCount>22</maxWeakCount>
      <stageThreshold>-1.0399761199951172e+00</stageThreshold>
      <weakClassifiers>
        <_>
          <internalNodes>
            0 -1 121 -2.3389193229377270e-03</internalNodes>
          <leafValues>
            -9.0186917781829834e-01 1.2168978899717331e-01</leafValues></_>
        <_>
          <internalNodes>
            0 -1 9 -6.1314806342124939e-02</internalNodes>
          <leafValues>
            -8.5013407468795776e-01 1.5301017463207245e-01</leafValues></_>
        <_>
          <internalNodes>
            0 -1 132 1.2856571003794670e-02</internalNodes>
          <leafValues>
            -3.1284150481224060e-01 3.6597570776939392e-01</leafValues></_>
        <_>
          <internalNodes>
            0 -1 139 -4.4609908945858479e-04</internalNodes>
          <leafValues>
            -6.6760772466659546e-01 2.0631527900695801e-01</leafValues></_>
        <_>
          <internalNodes>
            0 -1 8 1.5905965119600296e-02</internalNodes>
          <leafValues>
            1.0333213210105896e-01 -8.9779269695281982e-01</leafValues></_>
        <_>
          <internalNodes>
            0 -1 114 5.6054838933050632e-04</internalNodes>
          <leafValues>
            1.0489971935749054e-01 -6.4861172437667847e-01</leafValues></_>
        <_>
          <internalNodes>
            0 -1 44 1.9103567302227020e-01</internalNodes>
          <leafValues>
            -3.6958152055740356e-01 3.1617811322212219e-01</leafValues></_>
        <_>
          <internalNodes>
            0 -1 47 1.3197511434555054e-02</internalNodes>
          <leafValues>
            -1.9647629559040070e-01 5.4252624511718750e-01</leafValues></_>
        <_>
          <internalNodes>
            0 -1 105 2.2440782189369202e-01</internalNodes>
          <leafValues>
            -1.1332872509956360e-01 7.4297779798507690e-01</leafValues></_>
        <_>
          <internalNodes>
            0 -1 53 -1.4730975963175297e-02</internalNodes>
          <leafValues>
            -7.9177474975585938e-01 1.4152139425277710e-01</leafValues></_>
        <_>
          <internalNodes>
            0 -1 102 -4.7427766025066376e-02</internalNodes>
          <leafValues>
            3.4235545992851257e-01 -3.0492395162582397e-01</leafValues></_>
        <_>
          <internalNodes>
            0 -1 110 -1.3205441646277905e-03</internalNodes>
          <leafValues>
            -9.1160279512405396e-01 9.8131246864795685e-02</leafValues></_>
        <_>
          <internalNodes>
            0 -1 93 -4.4698817655444145e-03</internalNodes>
          <leafValues>
            -9.7681212425231934e-01 4.4599957764148712e-02</leafValues></_>
        <_>
          <internalNodes>
            0 -1 1 -1.1965540237724781e-02</internalNodes>
          <leafValues>
            -6.0624861717224121e-01 9.1338522732257843e-02</leafValues></_>
        <_>
          <internalNodes>
            0 -1 15 5.2325010299682617e-02</internalNodes>
          <leafValues>
            9.5472522079944611e-02 -8.0831187963485718e-01</leafValues></_>
        <_>
          <internalNodes>
            0 -1 13 1.9673775881528854e-02</internalNodes>
          <leafValues>
            -9.1874235868453979e-01 6.3193619251251221e-02</leafValues></_>
        <_>
          <internalNodes>
            0 -1 5 2.4766163900494576e-02</internalNodes>
          <leafValues>
            1.0047862678766251e-01 -6.6126012802124023e-01</leafValues></_>
        <_>
          <internalNodes>
            0 -1 137 -5.4567144252359867e-04</internalNodes>
          <leafValues>
            -5.8447468280792236e-01 1.1788986623287201e-01</leafValues></_>
        <_>
          <internalNodes>
            0 -1 21 6.6361308097839355e-02</internalNodes>
          <leafValues>
            -3.1298923492431641e-01 2.5636205077171326e-01</leafValues></_>
        <_>
          <internalNodes>
            0 -1 145 6.8480439484119415e-02</internalNodes>
          <leafValues>
            -1.2765429913997650e-01 6.1857867240905762e-01</leafValues></_>
        <_>
          <internalNodes>
            0 -1 149 1.3066610321402550e-02</internalNodes>
          <leafValues>
            -2.3785924911499023e-01 3.8580593466758728e-01</leafValues></_>
        <_>
          <internalNodes>
            0 -1 106 -9.8218861967325211e-04</internalNodes>
          <leafValues>
            -9.0745621919631958e-01 1.0559651255607605e-01</leafValues></_></weakClassifiers></_>
    <!-- stage 8 -->
    <_>
      <maxWeakCount>18</maxWeakCount>
      <stageThreshold>-9.8948532342910767e-01</stageThreshold>
      <weakClassifiers>
        <_>
          <internalNodes>
            0 -1 143 -1.2050285004079342e-03</internalNodes>
          <leafValues>
            -5.4041779041290283e-01 2.3809523880481720e-01</leafValues></_>
        <_>
          <internalNodes>
            0 -1 161 -1.5944514423608780e-02</internalNodes>
          <leafValues>
            -9.1959691047668457e-01 1.1219164729118347e-01</leafValues></_>
        <_>
          <internalNodes>
            0 -1 27 1.8229718506336212e-01</internalNodes>
          <leafValues>
            1.0831198841333389e-01 -8.8203424215316772e-01</leafValues></_>
        <_>
          <internalNodes>
            0 -1 24 3.0783899128437042e-03</internalNodes>
          <leafValues>
            1.7586855590343475e-01 -5.6056368350982666e-01</leafValues></_>
        <_>
          <internalNodes>
            0 -1 41 -1.3905851170420647e-02</internalNodes>
          <leafValues>
            -7.5568735599517822e-01 1.4556856453418732e-01</leafValues></_>
        <_>
          <internalNodes>
            0 -1 96 6.0845317784696817e-04</internalNodes>
          <leafValues>
            1.9219064712524414e-01 -5.1866424083709717e-01</leafValues></_>
        <_>
          <internalNodes>
            0 -1 43 1.5804159641265869e-01</internalNodes>
          <leafValues>
            -3.9006546139717102e-01 3.3353534340858459e-01</leafValues></_>
        <_>
          <internalNodes>
            0 -1 150 1.8721919506788254e-02</internalNodes>
          <leafValues>
            -1.8836784362792969e-01 6.6561156511306763e-01</leafValues></_>
        <_>
          <internalNodes>
            0 -1 98 1.8097124993801117e-02</internalNodes>
          <leafValues>
            1.8252214789390564e-01 -6.4837181568145752e-01</leafValues></_>
        <_>
          <internalNodes>
            0 -1 164 -7.2678900323808193e-03</internalNodes>
          <leafValues>
            -6.1413717269897461e-01 1.4571833610534668e-01</leafValues></_>
        <_>
          <internalNodes>
            0 -1 95 -9.5671396702528000e-03</internalNodes>
          <leafValues>
            -7.8307664394378662e-01 1.4665523171424866e-01</leafValues></_>
        <_>
          <internalNodes>
            0 -1 14 1.1084738373756409e-01</internalNodes>
          <leafValues>
            -1.6007742285728455e-01 8.4982901811599731e-01</leafValues></_>
        <_>
          <internalNodes>
            0 -1 155 2.4922046577557921e-04</internalNodes>
          <leafValues>
            -1.6824869811534882e-01 5.2069342136383057e-01</leafValues></_>
        <_>
          <internalNodes>
            0 -1 119 2.8427515178918839e-02</internalNodes>
          <leafValues>
            2.9037547111511230e-01 -4.2445632815361023e-01</leafValues></_>
        <_>
          <internalNodes>
            0 -1 3 -7.2921499609947205e-02</internalNodes>
          <leafValues>
            -9.3278509378433228e-01 1.0599751025438309e-01</leafValues></_>
        <_>
          <internalNodes>
            0 -1 113 -1.4107008464634418e-03</internalNodes>
          <leafValues>
            -7.6158469915390015e-01 9.6683338284492493e-02</leafValues></_>
        <_>
          <internalNodes>
            0 -1 115 1.3934415765106678e-03</internalNodes>
          <leafValues>
            1.3335083425045013e-01 -7.0596009492874146e-01</leafValues></_>
        <_>
          <internalNodes>
            0 -1 73 1.7093699425458908e-02</internalNodes>
          <leafValues>
            8.3429604768753052e-02 -8.9098030328750610e-01</leafValues></_></weakClassifiers></_>
    <!-- stage 9 -->
    <_>
      <maxWeakCount>24</maxWeakCount>
      <stageThreshold>-9.0017944574356079e-01</stageThreshold>
      <weakClassifiers>
        <_>
          <internalNodes>
            0 -1 33 2.2067797183990479e-01</internalNodes>
          <leafValues>
            -6.1391305923461914e-01 2.8816327452659607e-01</leafValues></_>
        <_>
          <internalNodes>
            0 -1 103 2.2463728487491608e-01</internalNodes>
          <leafValues>
            -4.4790166616439819e-01 3.4456932544708252e-01</leafValues></_>
        <_>
          <internalNodes>
            0 -1 94 7.1116606704890728e-04</internalNodes>
          <leafValues>
            2.0625948905944824e-01 -4.5295050740242004e-01</leafValues></_>
        <_>
          <internalNodes>
            0 -1 81 2.6710471510887146e-01</internalNodes>
          <leafValues>
            -2.1367144584655762e-01 6.0799872875213623e-01</leafValues></_>
        <_>
          <internalNodes>
            0 -1 68 2.2769357264041901e-01</internalNodes>
          <leafValues>
            -1.4986215531826019e-01 6.0481107234954834e-01</leafValues></_>
        <_>
          <internalNodes>
            0 -1 109 -1.3327910564839840e-03</internalNodes>
          <leafValues>
            -6.3040351867675781e-01 1.4330214262008667e-01</leafValues></_>
        <_>
          <internalNodes>
            0 -1 51 -3.6421790719032288e-02</internalNodes>
          <leafValues>
            7.5626939535140991e-01 -1.0146476328372955e-01</leafValues></_>
        <_>
          <internalNodes>
            0 -1 91 1.0001790942624211e-03</internalNodes>
          <leafValues>
            -6.2267822027206421e-01 1.6641895473003387e-01</leafValues></_>
        <_>
          <internalNodes>
            0 -1 157 3.0851021409034729e-02</internalNodes>
          <leafValues>
            1.3400301337242126e-01 -8.0798184871673584e-01</leafValues></_>
        <_>
          <internalNodes>
            0 -1 160 5.7362420484423637e-03</internalNodes>
          <leafValues>
            1.0081045329570770e-01 -7.0730561017990112e-01</leafValues></_>
        <_>
          <internalNodes>
            0 -1 38 -3.9546832442283630e-02</internalNodes>
          <leafValues>
            6.6418129205703735e-01 -1.7842297255992889e-01</leafValues></_>
        <_>
          <internalNodes>
            0 -1 4 -5.6944647803902626e-03</internalNodes>
          <leafValues>
            -5.7338494062423706e-01 2.2714936733245850e-01</leafValues></_>
        <_>
          <internalNodes>
            0 -1 25 7.3640480637550354e-02</internalNodes>
          <leafValues>
            -1.7862713336944580e-01 7.1518725156784058e-01</leafValues></_>
        <_>
          <internalNodes>
            0 -1 46 3.7514889240264893e-01</internalNodes>
          <leafValues>
            -1.5092641115188599e-01 4.8180294036865234e-01</leafValues></_>
        <_>
          <internalNodes>
            0 -1 104 1.1741770431399345e-02</internalNodes>
          <leafValues>
            2.0437361299991608e-01 -4.3292871117591858e-01</leafValues></_>
        <_>
          <internalNodes>
            0 -1 167 -2.9497405048459768e-03</internalNodes>
          <leafValues>
            -7.2075277566909790e-01 1.0958344489336014e-01</leafValues></_>
        <_>
          <internalNodes>
            0 -1 76 4.4641941785812378e-02</internalNodes>
          <leafValues>
            -3.4006628394126892e-01 2.5914832949638367e-01</leafValues></_>
        <_>
          <internalNodes>
            0 -1 86 3.4985244274139404e-03</internalNodes>
          <leafValues>
            2.1834114193916321e-01 -4.5670643448829651e-01</leafValues></_>
        <_>
          <internalNodes>
            0 -1 101 3.4905944019556046e-02</internalNodes>
          <leafValues>
            -3.1312513351440430e-01 2.5957626104354858e-01</leafValues></_>
        <_>
          <internalNodes>
            0 -1 59 3.4543849527835846e-02</internalNodes>
          <leafValues>
            5.1061838865280151e-01 -2.0395942032337189e-01</leafValues></_>
        <_>
          <internalNodes>
            0 -1 144 1.2216792674735188e-04</internalNodes>
          <leafValues>
            -4.2524877190589905e-01 2.1394492685794830e-01</leafValues></_>
        <_>
          <internalNodes>
            0 -1 142 1.4413887402042747e-03</internalNodes>
          <leafValues>
            1.3290330767631531e-01 -6.6572201251983643e-01</leafValues></_>
        <_>
          <internalNodes>
            0 -1 152 2.4915605317801237e-03</internalNodes>
          <leafValues>
            1.2823452055454254e-01 -5.7291370630264282e-01</leafValues></_>
        <_>
          <internalNodes>
            0 -1 148 -2.2329540550708771e-01</internalNodes>
          <leafValues>
            -9.0916776657104492e-01 8.2049801945686340e-02</leafValues></_></weakClassifiers></_>
    <!-- stage 10 -->
    <_>
      <maxWeakCount>19</maxWeakCount>
      <stageThreshold>-1.0827516317367554e+00</stageThreshold>
      <weakClassifiers>
        <_>
          <internalNodes>
            0 -1 90 8.3956904709339142e-03</internalNodes>
          <leafValues>
            -7.7183097600936890e-01 1.8961937725543976e-01</leafValues></_>
        <_>
          <internalNodes>
            0 -1 50 1.2589880824089050e-01</internalNodes>
          <leafValues>
            -3.8998445868492126e-01 3.7182772159576416e-01</leafValues></_>
        <_>
          <internalNodes>
            0 -1 30 6.1315950006246567e-03</internalNodes>
          <leafValues>
            2.5375559926033020e-01 -7.5334173440933228e-01</leafValues></_>
        <_>
          <internalNodes>
            0 -1 29 -4.7010432928800583e-02</internalNodes>
          <leafValues>
            -9.1129428148269653e-01 1.0339803993701935e-01</leafValues></_>
        <_>
          <internalNodes>
            0 -1 122 1.6232880298048258e-03</internalNodes>
          <leafValues>
            1.3303583860397339e-01 -7.7923423051834106e-01</leafValues></_>
        <_>
          <internalNodes>
            0 -1 52 4.3733537197113037e-02</internalNodes>
          <leafValues>
            1.3670837879180908e-01 -6.9090372323989868e-01</leafValues></_>
        <_>
          <internalNodes>
            0 -1 78 1.9407959654927254e-02</internalNodes>
          <leafValues>
            3.0908638238906860e-01 -3.8107839226722717e-01</leafValues></_>
        <_>
          <internalNodes>
            0 -1 19 2.7652105689048767e-01</internalNodes>
          <leafValues>
            -3.5823661088943481e-01 3.7186750769615173e-01</leafValues></_>
        <_>
          <internalNodes>
            0 -1 66 -3.3720649778842926e-02</internalNodes>
          <leafValues>
            7.2771829366683960e-01 -1.9427943229675293e-01</leafValues></_>
        <_>
          <internalNodes>
            0 -1 153 -7.0888949558138847e-03</internalNodes>
          <leafValues>
            -5.7068538665771484e-01 2.4434676766395569e-01</leafValues></_>
        <_>
          <internalNodes>
            0 -1 28 1.9635662902146578e-03</internalNodes>
          <leafValues>
            1.4837673306465149e-01 -6.4822292327880859e-01</leafValues></_>
        <_>
          <internalNodes>
            0 -1 154 6.3597364351153374e-04</internalNodes>
          <leafValues>
            -2.4256676435470581e-01 4.9291056394577026e-01</leafValues></_>
        <_>
          <internalNodes>
            0 -1 63 8.3731964696198702e-04</internalNodes>
          <leafValues>
            -3.3503264188766479e-01 3.0537942051887512e-01</leafValues></_>
        <_>
          <internalNodes>
            0 -1 128 -1.2688389979302883e-03</internalNodes>
          <leafValues>
            -8.0258864164352417e-01 1.3008584082126617e-01</leafValues></_>
        <_>
          <internalNodes>
            0 -1 133 3.3813978079706430e-03</internalNodes>
          <leafValues>
            -5.6283313035964966e-01 2.1342550218105316e-01</leafValues></_>
        <_>
          <internalNodes>
            0 -1 49 2.5285938754677773e-03</internalNodes>
          <leafValues>
            -1.7978920042514801e-01 5.7506775856018066e-01</leafValues></_>
        <_>
          <internalNodes>
            0 -1 117 -6.1894138343632221e-03</internalNodes>
          <leafValues>
            6.8721896409988403e-01 -1.4998391270637512e-01</leafValues></_>
        <_>
          <internalNodes>
            0 -1 34 -4.3937809765338898e-02</internalNodes>
          <leafValues>
            6.1847174167633057e-01 -1.6005620360374451e-01</leafValues></_>
        <_>
          <internalNodes>
            0 -1 60 3.3835470676422119e-01</internalNodes>
          <leafValues>
            -2.3844952881336212e-01 5.8098453283309937e-01</leafValues></_></weakClassifiers></_></stages>
  <features>
    <_>
      <rects>
        <_>
          0 0 1 10 -1.</_>
        <_>
          0 5 1 5 2.</_></rects>
      <tilted>0</tilted></_>
    <_>
      <rects>
        <_>
          0 0 1 20 -1.</_>
        <_>
          0 10 1 10 2.</_></rects>
      <tilted>0</tilted></_>
    <_>
      <rects>
        <_>
          0 0 2 8 -1.</_>
        <_>
          0 4 2 4 2.</_></rects>
      <tilted>0</tilted></_>
    <_>
      <rects>
        <_>
          0 0 3 18 -1.</_>
        <_>
          0 9 3 9 2.</_></rects>
      <tilted>0</tilted></_>
    <_>
      <rects>
        <_>
          0 0 4 4 -1.</_>
        <_>
          0 2 4 2 2.</_></rects>
      <tilted>0</tilted></_>
    <_>
      <rects>
        <_>
          0 0 10 3 -1.</_>
        <_>
          5 0 5 3 2.</_></rects>
      <tilted>0</tilted></_>
    <_>
      <rects>
        <_>
          0 0 12 12 -1.</_>
        <_>
          0 0 6 6 2.</_>
        <_>
          6 6 6 6 2.</_></rects>
      <tilted>0</tilted></_>
    <_>
      <rects>
        <_>
          0 0 12 19 -1.</_>
        <_>
          6 0 6 19 2.</_></rects>
      <tilted>0</tilted></_>
    <_>
      <rects>
        <_>
          0 0 16 1 -1.</_>
        <_>
          8 0 8 1 2.</_></rects>
      <tilted>0</tilted></_>
    <_>
      <rects>
        <_>
          0 0 20 3 -1.</_>
        <_>
          10 0 10 3 2.</_></rects>
      <tilted>0</tilted></_>
    <_>
      <rects>
        <_>
          0 0 17 8 -1.</_>
        <_>
          0 4 17 4 2.</_></rects>
      <tilted>0</tilted></_>
    <_>
      <rects>
        <_>
          0 1 1 18 -1.</_>
        <_>
          0 7 1 6 3.</_></rects>
      <tilted>0</tilted></_>
    <_>
      <rects>
        <_>
          0 1 1 14 -1.</_>
        <_>
          0 8 1 7 2.</_></rects>
      <tilted>0</tilted></_>
    <_>
      <rects>
        <_>
          0 1 8 19 -1.</_>
        <_>
          4 1 4 19 2.</_></rects>
      <tilted>0</tilted></_>
    <_>
      <rects>
        <_>
          0 3 9 15 -1.</_>
        <_>
          3 3 3 15 3.</_></rects>
      <tilted>0</tilted></_>
    <_>
      <rects>
        <_>
          0 4 4 16 -1.</_>
        <_>
          0 12 4 8 2.</_></rects>
      <tilted>0</tilted></_>
    <_>
      <rects>
        <_>
          0 4 8 14 -1.</_>
        <_>
          4 4 4 14 2.</_></rects>
      <tilted>0</tilted></_>
    <_>
      <rects>
        <_>
          0 4 15 12 -1.</_>
        <_>
          5 4 5 12 3.</_></rects>
      <tilted>0</tilted></_>
    <_>
      <rects>
        <_>
          0 5 12 11 -1.</_>
        <_>
          4 5 4 11 3.</_></rects>
      <tilted>0</tilted></_>
    <_>
      <rects>
        <_>
          0 5 18 7 -1.</_>
        <_>
          6 5 6 7 3.</_></rects>
      <tilted>0</tilted></_>
    <_>
      <rects>
        <_>
          0 6 10 14 -1.</_>
        <_>
          5 6 5 14 2.</_></rects>
      <tilted>0</tilted></_>
    <_>
      <rects>
        <_>
          0 6 18 2 -1.</_>
        <_>
          6 6 6 2 3.</_></rects>
      <tilted>0</tilted></_>
    <_>
      <rects>
        <_>
          0 7 1 12 -1.</_>
        <_>
          0 13 1 6 2.</_></rects>
      <tilted>0</tilted></_>
    <_>
      <rects>
        <_>
          0 8 12 12 -1.</_>
        <_>
          0 8 6 6 2.</_>
        <_>
          6 14 6 6 2.</_></rects>
      <tilted>0</tilted></_>
    <_>
      <rects>
        <_>
          0 12 2 8 -1.</_>
        <_>
          1 12 1 8 2.</_></rects>
      <tilted>0</tilted></_>
    <_>
      <rects>
        <_>
          0 12 12 3 -1.</_>
        <_>
          4 12 4 3 3.</_></rects>
      <tilted>0</tilted></_>
    <_>
      <rects>
        <_>
          0 12 18 2 -1.</_>
        <_>
          6 12 6 2 3.</_></rects>
      <tilted>0</tilted></_>
    <_>
      <rects>
        <_>
          0 13 20 7 -1.</_>
        <_>
          10 13 10 7 2.</_></rects>
      <tilted>0</tilted></_>
    <_>
      <rects>
        <_>
          0 16 1 4 -1.</_>
        <_>
          0 18 1 2 2.</_></rects>
      <tilted>0</tilted></_>
    <_>
      <rects>
        <_>
          0 17 16 3 -1.</_>
        <_>
          8 17 8 3 2.</_></rects>
      <tilted>0</tilted></_>
    <_>
      <rects>
        <_>
          0 19 8 1 -1.</_>
        <_>
          4 19 4 1 2.</_></rects>
      <tilted>0</tilted></_>
    <_>
      <rects>
        <_>
          1 0 16 1 -1.</_>
        <_>
          9 0 8 1 2.</_></rects>
      <tilted>0</tilted></_>
    <_>
      <rects>
        <_>
          1 0 18 20 -1.</_>
        <_>
          1 0 9 10 2.</_>
        <_>
          10 10 9 10 2.</_></rects>
      <tilted>0</tilted></_>
    <_>
      <rects>
        <_>
          1 7 18 6 -1.</_>
        <_>
          7 7 6 6 3.</_></rects>
      <tilted>0</tilted></_>
    <_>
      <rects>
        <_>
          1 7 17 6 -1.</_>
        <_>
          1 10 17 3 2.</_></rects>
      <tilted>0</tilted></_>
    <_>
      <rects>
        <_>
          1 8 18 4 -1.</_>
        <_>
          7 8 6 4 3.</_></rects>
      <tilted>0</tilted></_>
    <_>
      <rects>
        <_>
          1 8 18 5 -1.</_>
        <_>
          7 8 6 5 3.</_></rects>
      <tilted>0</tilted></_>
    <_>
      <rects>
        <_>
          1 8 18 6 -1.</_>
        <_>
          7 8 6 6 3.</_></rects>
      <tilted>0</tilted></_>
    <_>
      <rects>
        <_>
          1 9 6 6 -1.</_>
        <_>
          3 9 2 6 3.</_></rects>
      <tilted>0</tilted></_>
    <_>
      <rects>
        <_>
          1 17 12 3 -1.</_>
        <_>
          7 17 6 3 2.</_></rects>
      <tilted>0</tilted></_>
    <_>
      <rects>
        <_>
          1 19 14 1 -1.</_>
        <_>
          8 19 7 1 2.</_></rects>
      <tilted>0</tilted></_>
    <_>
      <rects>
        <_>
          2 0 18 1 -1.</_>
        <_>
          11 0 9 1 2.</_></rects>
      <tilted>0</tilted></_>
    <_>
      <rects>
        <_>
          2 1 8 12 -1.</_>
        <_>
          2 1 4 6 2.</_>
        <_>
          6 7 4 6 2.</_></rects>
      <tilted>0</tilted></_>
    <_>
      <rects>
        <_>
          2 6 18 4 -1.</_>
        <_>
          8 6 6 4 3.</_></rects>
      <tilted>0</tilted></_>
    <_>
      <rects>
        <_>
          2 6 18 5 -1.</_>
        <_>
          8 6 6 5 3.</_></rects>
      <tilted>0</tilted></_>
    <_>
      <rects>
        <_>
          2 7 18 4 -1.</_>
        <_>
          8 7 6 4 3.</_></rects>
      <tilted>0</tilted></_>
    <_>
      <rects>
        <_>
          2 7 18 8 -1.</_>
        <_>
          8 7 6 8 3.</_></rects>
      <tilted>0</tilted></_>
    <_>
      <rects>
        <_>
          2 9 6 3 -1.</_>
        <_>
          4 9 2 3 3.</_></rects>
      <tilted>0</tilted></_>
    <_>
      <rects>
        <_>
          2 10 18 4 -1.</_>
        <_>
          8 10 6 4 3.</_></rects>
      <tilted>0</tilted></_>
    <_>
      <rects>
        <_>
          2 11 5 6 -1.</_>
        <_>
          2 14 5 3 2.</_></rects>
      <tilted>0</tilted></_>
    <_>
      <rects>
        <_>
          2 11 18 3 -1.</_>
        <_>
          8 11 6 3 3.</_></rects>
      <tilted>0</tilted></_>
    <_>
      <rects>
        <_>
          2 12 14 4 -1.</_>
        <_>
          2 12 7 2 2.</_>
        <_>
          9 14 7 2 2.</_></rects>
      <tilted>0</tilted></_>
    <_>
      <rects>
        <_>
          2 17 18 3 -1.</_>
        <_>
          8 17 6 3 3.</_></rects>
      <tilted>0</tilted></_>
    <_>
      <rects>
        <_>
          2 19 18 1 -1.</_>
        <_>
          11 19 9 1 2.</_></rects>
      <tilted>0</tilted></_>
    <_>
      <rects>
        <_>
          3 0 15 1 -1.</_>
        <_>
          8 0 5 1 3.</_></rects>
      <tilted>0</tilted></_>
    <_>
      <rects>
        <_>
          3 0 12 12 -1.</_>
        <_>
          3 4 12 4 3.</_></rects>
      <tilted>0</tilted></_>
    <_>
      <rects>
        <_>
          3 0 13 15 -1.</_>
        <_>
          3 5 13 5 3.</_></rects>
      <tilted>0</tilted></_>
    <_>
      <rects>
        <_>
          3 1 14 18 -1.</_>
        <_>
          3 1 7 9 2.</_>
        <_>
          10 10 7 9 2.</_></rects>
      <tilted>0</tilted></_>
    <_>
      <rects>
        <_>
          3 1 16 18 -1.</_>
        <_>
          3 1 8 9 2.</_>
        <_>
          11 10 8 9 2.</_></rects>
      <tilted>0</tilted></_>
    <_>
      <rects>
        <_>
          3 4 15 12 -1.</_>
        <_>
          3 8 15 4 3.</_></rects>
      <tilted>0</tilted></_>
    <_>
      <rects>
        <_>
          3 5 13 15 -1.</_>
        <_>
          3 10 13 5 3.</_></rects>
      <tilted>0</tilted></_>
    <_>
      <rects>
        <_>
          3 6 12 10 -1.</_>
        <_>
          3 11 12 5 2.</_></rects>
      <tilted>0</tilted></_>
    <_>
      <rects>
        <_>
          3 7 7 6 -1.</_>
        <_>
          3 9 7 2 3.</_></rects>
      <tilted>0</tilted></_>
    <_>
      <rects>
        <_>
          3 9 6 1 -1.</_>
        <_>
          5 9 2 1 3.</_></rects>
      <tilted>0</tilted></_>
    <_>
      <rects>
        <_>
          3 12 17 8 -1.</_>
        <_>
          3 16 17 4 2.</_></rects>
      <tilted>0</tilted></_>
    <_>
      <rects>
        <_>
          3 13 6 2 -1.</_>
        <_>
          5 13 2 2 3.</_></rects>
      <tilted>0</tilted></_>
    <_>
      <rects>
        <_>
          4 0 4 15 -1.</_>
        <_>
          4 5 4 5 3.</_></rects>
      <tilted>0</tilted></_>
    <_>
      <rects>
        <_>
          4 0 16 1 -1.</_>
        <_>
          12 0 8 1 2.</_></rects>
      <tilted>0</tilted></_>
    <_>
      <rects>
        <_>
          4 1 12 12 -1.</_>
        <_>
          4 5 12 4 3.</_></rects>
      <tilted>0</tilted></_>
    <_>
      <rects>
        <_>
          4 5 12 15 -1.</_>
        <_>
          4 10 12 5 3.</_></rects>
      <tilted>0</tilted></_>
    <_>
      <rects>
        <_>
          4 8 3 1 -1.</_>
        <_>
          5 8 1 1 3.</_></rects>
      <tilted>0</tilted></_>
    <_>
      <rects>
        <_>
          4 8 12 12 -1.</_>
        <_>
          4 12 12 4 3.</_></rects>
      <tilted>0</tilted></_>
    <_>
      <rects>
        <_>
          4 10 11 10 -1.</_>
        <_>
          4 15 11 5 2.</_></rects>
      <tilted>0</tilted></_>
    <_>
      <rects>
        <_>
          4 19 16 1 -1.</_>
        <_>
          12 19 8 1 2.</_></rects>
      <tilted>0</tilted></_>
    <_>
      <rects>
        <_>
          5 0 10 18 -1.</_>
        <_>
          5 6 10 6 3.</_></rects>
      <tilted>0</tilted></_>
    <_>
      <rects>
        <_>
          5 0 15 8 -1.</_>
        <_>
          5 4 15 4 2.</_></rects>
      <tilted>0</tilted></_>
    <_>
      <rects>
        <_>
          5 1 6 19 -1.</_>
        <_>
          8 1 3 19 2.</_></rects>
      <tilted>0</tilted></_>
    <_>
      <rects>
        <_>
          5 1 15 15 -1.</_>
        <_>
          10 1 5 15 3.</_></rects>
      <tilted>0</tilted></_>
    <_>
      <rects>
        <_>
          5 2 9 7 -1.</_>
        <_>
          8 2 3 7 3.</_></rects>
      <tilted>0</tilted></_>
    <_>
      <rects>
        <_>
          5 4 11 10 -1.</_>
        <_>
          5 9 11 5 2.</_></rects>
      <tilted>0</tilted></_>
    <_>
      <rects>
        <_>
          5 5 15 11 -1.</_>
        <_>
          10 5 5 11 3.</_></rects>
      <tilted>0</tilted></_>
    <_>
      <rects>
        <_>
          5 7 15 9 -1.</_>
        <_>
          10 7 5 9 3.</_></rects>
      <tilted>0</tilted></_>
    <_>
      <rects>
        <_>
          5 10 9 10 -1.</_>
        <_>
          5 15 9 5 2.</_></rects>
      <tilted>0</tilted></_>
    <_>
      <rects>
        <_>
          6 0 12 1 -1.</_>
        <_>
          12 0 6 1 2.</_></rects>
      <tilted>0</tilted></_>
    <_>
      <rects>
        <_>
          6 5 11 15 -1.</_>
        <_>
          6 10 11 5 3.</_></rects>
      <tilted>0</tilted></_>
    <_>
      <rects>
        <_>
          6 10 2 1 -1.</_>
        <_>
          7 10 1 1 2.</_></rects>
      <tilted>0</tilted></_>
    <_>
      <rects>
        <_>
          6 10 4 2 -1.</_>
        <_>
          8 10 2 2 2.</_></rects>
      <tilted>0</tilted></_>
    <_>
      <rects>
        <_>
          7 0 8 10 -1.</_>
        <_>
          7 5 8 5 2.</_></rects>
      <tilted>0</tilted></_>
    <_>
      <rects>
        <_>
          7 2 1 18 -1.</_>
        <_>
          7 8 1 6 3.</_></rects>
      <tilted>0</tilted></_>
    <_>
      <rects>
        <_>
          7 3 6 6 -1.</_>
        <_>
          9 3 2 6 3.</_></rects>
      <tilted>0</tilted></_>
    <_>
      <rects>
        <_>
          7 5 7 9 -1.</_>
        <_>
          7 8 7 3 3.</_></rects>
      <tilted>0</tilted></_>
    <_>
      <rects>
        <_>
          7 7 6 6 -1.</_>
        <_>
          9 7 2 6 3.</_></rects>
      <tilted>0</tilted></_>
    <_>
      <rects>
        <_>
          7 7 6 7 -1.</_>
        <_>
          9 7 2 7 3.</_></rects>
      <tilted>0</tilted></_>
    <_>
      <rects>
        <_>
          7 7 4 6 -1.</_>
        <_>
          7 9 4 2 3.</_></rects>
      <tilted>0</tilted></_>
    <_>
      <rects>
        <_>
          7 9 2 1 -1.</_>
        <_>
          8 9 1 1 2.</_></rects>
      <tilted>0</tilted></_>
    <_>
      <rects>
        <_>
          7 9 6 10 -1.</_>
        <_>
          9 9 2 10 3.</_></rects>
      <tilted>0</tilted></_>
    <_>
      <rects>
        <_>
          7 10 2 1 -1.</_>
        <_>
          8 10 1 1 2.</_></rects>
      <tilted>0</tilted></_>
    <_>
      <rects>
        <_>
          7 12 1 6 -1.</_>
        <_>
          7 14 1 2 3.</_></rects>
      <tilted>0</tilted></_>
    <_>
      <rects>
        <_>
          8 0 12 2 -1.</_>
        <_>
          12 0 4 2 3.</_></rects>
      <tilted>0</tilted></_>
    <_>
      <rects>
        <_>
          8 0 6 10 -1.</_>
        <_>
          8 5 6 5 2.</_></rects>
      <tilted>0</tilted></_>
    <_>
      <rects>
        <_>
          8 1 4 18 -1.</_>
        <_>
          8 7 4 6 3.</_></rects>
      <tilted>0</tilted></_>
    <_>
      <rects>
        <_>
          8 2 1 18 -1.</_>
        <_>
          8 8 1 6 3.</_></rects>
      <tilted>0</tilted></_>
    <_>
      <rects>
        <_>
          8 2 6 17 -1.</_>
        <_>
          11 2 3 17 2.</_></rects>
      <tilted>0</tilted></_>
    <_>
      <rects>
        <_>
          8 2 6 18 -1.</_>
        <_>
          8 8 6 6 3.</_></rects>
      <tilted>0</tilted></_>
    <_>
      <rects>
        <_>
          8 3 6 6 -1.</_>
        <_>
          10 3 2 6 3.</_></rects>
      <tilted>0</tilted></_>
    <_>
      <rects>
        <_>
          8 5 12 12 -1.</_>
        <_>
          12 5 4 12 3.</_></rects>
      <tilted>0</tilted></_>
    <_>
      <rects>
        <_>
          8 8 3 2 -1.</_>
        <_>
          8 9 3 1 2.</_></rects>
      <tilted>0</tilted></_>
    <_>
      <rects>
        <_>
          8 8 12 12 -1.</_>
        <_>
          8 8 6 6 2.</_>
        <_>
          14 14 6 6 2.</_></rects>
      <tilted>0</tilted></_>
    <_>
      <rects>
        <_>
          8 9 2 2 -1.</_>
        <_>
          9 9 1 2 2.</_></rects>
      <tilted>0</tilted></_>
    <_>
      <rects>
        <_>
          8 9 1 4 -1.</_>
        <_>
          8 11 1 2 2.</_></rects>
      <tilted>0</tilted></_>
    <_>
      <rects>
        <_>
          8 9 2 3 -1.</_>
        <_>
          9 9 1 3 2.</_></rects>
      <tilted>0</tilted></_>
    <_>
      <rects>
        <_>
          8 9 4 2 -1.</_>
        <_>
          10 9 2 2 2.</_></rects>
      <tilted>0</tilted></_>
    <_>
      <rects>
        <_>
          8 10 2 2 -1.</_>
        <_>
          9 10 1 2 2.</_></rects>
      <tilted>0</tilted></_>
    <_>
      <rects>
        <_>
          8 10 4 1 -1.</_>
        <_>
          10 10 2 1 2.</_></rects>
      <tilted>0</tilted></_>
    <_>
      <rects>
        <_>
          8 11 2 1 -1.</_>
        <_>
          9 11 1 1 2.</_></rects>
      <tilted>0</tilted></_>
    <_>
      <rects>
        <_>
          8 11 4 1 -1.</_>
        <_>
          10 11 2 1 2.</_></rects>
      <tilted>0</tilted></_>
    <_>
      <rects>
        <_>
          8 12 1 6 -1.</_>
        <_>
          8 14 1 2 3.</_></rects>
      <tilted>0</tilted></_>
    <_>
      <rects>
        <_>
          8 13 1 6 -1.</_>
        <_>
          8 15 1 2 3.</_></rects>
      <tilted>0</tilted></_>
    <_>
      <rects>
        <_>
          8 18 12 2 -1.</_>
        <_>
          12 18 4 2 3.</_></rects>
      <tilted>0</tilted></_>
    <_>
      <rects>
        <_>
          9 5 9 9 -1.</_>
        <_>
          9 8 9 3 3.</_></rects>
      <tilted>0</tilted></_>
    <_>
      <rects>
        <_>
          9 7 1 4 -1.</_>
        <_>
          9 9 1 2 2.</_></rects>
      <tilted>0</tilted></_>
    <_>
      <rects>
        <_>
          9 7 5 6 -1.</_>
        <_>
          9 9 5 2 3.</_></rects>
      <tilted>0</tilted></_>
    <_>
      <rects>
        <_>
          9 8 1 4 -1.</_>
        <_>
          9 10 1 2 2.</_></rects>
      <tilted>0</tilted></_>
    <_>
      <rects>
        <_>
          9 8 2 2 -1.</_>
        <_>
          9 9 2 1 2.</_></rects>
      <tilted>0</tilted></_>
    <_>
      <rects>
        <_>
          9 9 1 4 -1.</_>
        <_>
          9 11 1 2 2.</_></rects>
      <tilted>0</tilted></_>
    <_>
      <rects>
        <_>
          9 9 4 1 -1.</_>
        <_>
          11 9 2 1 2.</_></rects>
      <tilted>0</tilted></_>
    <_>
      <rects>
        <_>
          9 9 2 2 -1.</_>
        <_>
          9 10 2 1 2.</_></rects>
      <tilted>0</tilted></_>
    <_>
      <rects>
        <_>
          9 9 2 4 -1.</_>
        <_>
          9 11 2 2 2.</_></rects>
      <tilted>0</tilted></_>
    <_>
      <rects>
        <_>
          9 9 3 2 -1.</_>
        <_>
          9 10 3 1 2.</_></rects>
      <tilted>0</tilted></_>
    <_>
      <rects>
        <_>
          9 9 10 10 -1.</_>
        <_>
          9 9 5 5 2.</_>
        <_>
          14 14 5 5 2.</_></rects>
      <tilted>0</tilted></_>
    <_>
      <rects>
        <_>
          9 10 2 1 -1.</_>
        <_>
          10 10 1 1 2.</_></rects>
      <tilted>0</tilted></_>
    <_>
      <rects>
        <_>
          9 10 4 1 -1.</_>
        <_>
          11 10 2 1 2.</_></rects>
      <tilted>0</tilted></_>
    <_>
      <rects>
        <_>
          10 1 2 9 -1.</_>
        <_>
          10 4 2 3 3.</_></rects>
      <tilted>0</tilted></_>
    <_>
      <rects>
        <_>
          10 3 3 9 -1.</_>
        <_>
          10 6 3 3 3.</_></rects>
      <tilted>0</tilted></_>
    <_>
      <rects>
        <_>
          10 6 10 7 -1.</_>
        <_>
          15 6 5 7 2.</_></rects>
      <tilted>0</tilted></_>
    <_>
      <rects>
        <_>
          10 7 1 6 -1.</_>
        <_>
          10 9 1 2 3.</_></rects>
      <tilted>0</tilted></_>
    <_>
      <rects>
        <_>
          10 8 1 4 -1.</_>
        <_>
          10 10 1 2 2.</_></rects>
      <tilted>0</tilted></_>
    <_>
      <rects>
        <_>
          10 9 2 1 -1.</_>
        <_>
          11 9 1 1 2.</_></rects>
      <tilted>0</tilted></_>
    <_>
      <rects>
        <_>
          10 9 1 4 -1.</_>
        <_>
          10 11 1 2 2.</_></rects>
      <tilted>0</tilted></_>
    <_>
      <rects>
        <_>
          10 10 1 2 -1.</_>
        <_>
          10 11 1 1 2.</_></rects>
      <tilted>0</tilted></_>
    <_>
      <rects>
        <_>
          10 11 1 2 -1.</_>
        <_>
          10 12 1 1 2.</_></rects>
      <tilted>0</tilted></_>
    <_>
      <rects>
        <_>
          11 7 6 1 -1.</_>
        <_>
          13 7 2 1 3.</_></rects>
      <tilted>0</tilted></_>
    <_>
      <rects>
        <_>
          11 8 1 4 -1.</_>
        <_>
          11 10 1 2 2.</_></rects>
      <tilted>0</tilted></_>
    <_>
      <rects>
        <_>
          11 9 2 2 -1.</_>
        <_>
          12 9 1 2 2.</_></rects>
      <tilted>0</tilted></_>
    <_>
      <rects>
        <_>
          11 9 1 6 -1.</_>
        <_>
          11 11 1 2 3.</_></rects>
      <tilted>0</tilted></_>
    <_>
      <rects>
        <_>
          11 11 7 9 -1.</_>
        <_>
          11 14 7 3 3.</_></rects>
      <tilted>0</tilted></_>
    <_>
      <rects>
        <_>
          12 0 8 16 -1.</_>
        <_>
          16 0 4 16 2.</_></rects>
      <tilted>0</tilted></_>
    <_>
      <rects>
        <_>
          12 0 8 20 -1.</_>
        <_>
          16 0 4 20 2.</_></rects>
      <tilted>0</tilted></_>
    <_>
      <rects>
        <_>
          12 0 8 20 -1.</_>
        <_>
          12 10 8 10 2.</_></rects>
      <tilted>0</tilted></_>
    <_>
      <rects>
        <_>
          12 2 2 9 -1.</_>
        <_>
          12 5 2 3 3.</_></rects>
      <tilted>0</tilted></_>
    <_>
      <rects>
        <_>
          12 7 6 5 -1.</_>
        <_>
          14 7 2 5 3.</_></rects>
      <tilted>0</tilted></_>
    <_>
      <rects>
        <_>
          12 8 4 12 -1.</_>
        <_>
          12 12 4 4 3.</_></rects>
      <tilted>0</tilted></_>
    <_>
      <rects>
        <_>
          13 0 6 1 -1.</_>
        <_>
          16 0 3 1 2.</_></rects>
      <tilted>0</tilted></_>
    <_>
      <rects>
        <_>
          14 0 6 2 -1.</_>
        <_>
          17 0 3 2 2.</_></rects>
      <tilted>0</tilted></_>
    <_>
      <rects>
        <_>
          14 10 3 1 -1.</_>
        <_>
          15 10 1 1 3.</_></rects>
      <tilted>0</tilted></_>
    <_>
      <rects>
        <_>
          15 9 3 1 -1.</_>
        <_>
          16 9 1 1 3.</_></rects>
      <tilted>0</tilted></_>
    <_>
      <rects>
        <_>
          16 0 4 20 -1.</_>
        <_>
          16 10 4 10 2.</_></rects>
      <tilted>0</tilted></_>
    <_>
      <rects>
        <_>
          16 10 4 10 -1.</_>
        <_>
          16 15 4 5 2.</_></rects>
      <tilted>0</tilted></_>
    <_>
      <rects>
        <_>
          18 6 2 12 -1.</_>
        <_>
          18 12 2 6 2.</_></rects>
      <tilted>0</tilted></_>
    <_>
      <rects>
        <_>
          18 10 2 10 -1.</_>
        <_>
          18 15 2 5 2.</_></rects>
      <tilted>0</tilted></_>
    <_>
      <rects>
        <_>
          19 0 1 8 -1.</_>
        <_>
          19 4 1 4 2.</_></rects>
      <tilted>0</tilted></_>
    <_>
      <rects>
        <_>
          19 0 1 14 -1.</_>
        <_>
          19 7 1 7 2.</_></rects>
      <tilted>0</tilted></_>
    <_>
      <rects>
        <_>
          19 0 1 16 -1.</_>
        <_>
          19 8 1 8 2.</_></rects>
      <tilted>0</tilted></_>
    <_>
      <rects>
        <_>
          19 1 1 12 -1.</_>
        <_>
          19 5 1 4 3.</_></rects>
      <tilted>0</tilted></_>
    <_>
      <rects>
        <_>
          19 1 1 14 -1.</_>
        <_>
          19 8 1 7 2.</_></rects>
      <tilted>0</tilted></_>
    <_>
      <rects>
        <_>
          19 2 1 18 -1.</_>
        <_>
          19 11 1 9 2.</_></rects>
      <tilted>0</tilted></_>
    <_>
      <rects>
        <_>
          19 8 1 12 -1.</_>
        <_>
          19 14 1 6 2.</_></rects>
      <tilted>0</tilted></_>
    <_>
      <rects>
        <_>
          19 16 1 4 -1.</_>
        <_>
          19 18 1 2 2.</_></rects>
      <tilted>0</tilted></_></features></cascade>
</opencv_storage>
