<?xml version="1.0"?>
<opencv_storage>
<cascade>
  <stageType>BOOST</stageType>
  <featureType>HAAR</featureType>
  <height>20</height>
  <width>20</width>
  <stageParams>
    <boostType>GAB</boostType>
    <minHitRate>9.9500000476837158e-01</minHitRate>
    <maxFalseAlarm>5.0000000000000000e-01</maxFalseAlarm>
    <weightTrimRate>9.4999999999999996e-01</weightTrimRate>
    <maxDepth>1</maxDepth>
    <maxWeakCount>100</maxWeakCount></stageParams>
  <featureParams>
    <maxCatCount>0</maxCatCount>
    <featSize>1</featSize>
    <mode>BASIC</mode></featureParams>
  <stageNum>8</stageNum>
  <stages>
    <!-- stage 0 -->
    <_>
      <maxWeakCount>3</maxWeakCount>
      <stageThreshold>-1.4178688526153564e+00</stageThreshold>
      <weakClassifiers>
        <_>
          <internalNodes>
            0 -1 13 -7.3110505938529968e-02</internalNodes>
          <leafValues>
            4.7467166185379028e-01 -9.6527522802352905e-01</leafValues></_>
        <_>
          <internalNodes>
            0 -1 27 -7.3770985007286072e-02</internalNodes>
          <leafValues>
            6.2351149320602417e-01 -9.5296680927276611e-01</leafValues></_>
        <_>
          <internalNodes>
            0 -1 1 2.2075450420379639e-01</internalNodes>
          <leafValues>
            -9.3957370519638062e-01 7.0948368310928345e-01</leafValues></_></weakClassifiers></_>
    <!-- stage 1 -->
    <_>
      <maxWeakCount>3</maxWeakCount>
      <stageThreshold>-1.5783098936080933e+00</stageThreshold>
      <weakClassifiers>
        <_>
          <internalNodes>
            0 -1 12 7.7968075871467590e-02</internalNodes>
          <leafValues>
            -9.4994395971298218e-01 3.2504439353942871e-01</leafValues></_>
        <_>
          <internalNodes>
            0 -1 3 4.6378079801797867e-02</internalNodes>
          <leafValues>
            -9.4009077548980713e-01 2.7810430526733398e-01</leafValues></_>
        <_>
          <internalNodes>
            0 -1 25 -1.4619725942611694e-01</internalNodes>
          <leafValues>
            4.1811513900756836e-01 -9.0647023916244507e-01</leafValues></_></weakClassifiers></_>
    <!-- stage 2 -->
    <_>
      <maxWeakCount>3</maxWeakCount>
      <stageThreshold>-1.5482425689697266e+00</stageThreshold>
      <weakClassifiers>
        <_>
          <internalNodes>
            0 -1 9 2.3019376397132874e-01</internalNodes>
          <leafValues>
            -9.2492258548736572e-01 4.5731708407402039e-02</leafValues></_>
        <_>
          <internalNodes>
            0 -1 10 -1.5307430922985077e-01</internalNodes>
          <leafValues>
            3.2460126280784607e-01 -8.7758874893188477e-01</leafValues></_>
        <_>
          <internalNodes>
            0 -1 26 1.9916385412216187e-02</internalNodes>
          <leafValues>
            -7.1638548374176025e-01 5.0012898445129395e-01</leafValues></_></weakClassifiers></_>
    <!-- stage 3 -->
    <_>
      <maxWeakCount>3</maxWeakCount>
      <stageThreshold>-1.4386827945709229e+00</stageThreshold>
      <weakClassifiers>
        <_>
          <internalNodes>
            0 -1 8 2.5004805065691471e-03</internalNodes>
          <leafValues>
            -8.3787465095520020e-01 3.2894736528396606e-01</leafValues></_>
        <_>
          <internalNodes>
            0 -1 16 3.8431696593761444e-02</internalNodes>
          <leafValues>
            -8.8900864124298096e-01 3.2918915152549744e-01</leafValues></_>
        <_>
          <internalNodes>
            0 -1 18 4.0886133909225464e-02</internalNodes>
          <leafValues>
            -8.7862157821655273e-01 4.2569023370742798e-01</leafValues></_></weakClassifiers></_>
    <!-- stage 4 -->
    <_>
      <maxWeakCount>5</maxWeakCount>
      <stageThreshold>-1.9289333820343018e+00</stageThreshold>
      <weakClassifiers>
        <_>
          <internalNodes>
            0 -1 5 1.9666098058223724e-02</internalNodes>
          <leafValues>
            -9.1608995199203491e-01 -2.6077586412429810e-01</leafValues></_>
        <_>
          <internalNodes>
            0 -1 22 -2.4647670984268188e-01</internalNodes>
          <leafValues>
            2.8504103422164917e-01 -7.9900860786437988e-01</leafValues></_>
        <_>
          <internalNodes>
            0 -1 2 9.0429410338401794e-02</internalNodes>
          <leafValues>
            -8.5356122255325317e-01 3.1314349174499512e-01</leafValues></_>
        <_>
          <internalNodes>
            0 -1 24 3.2937228679656982e-02</internalNodes>
          <leafValues>
            -8.7337297201156616e-01 2.8642582893371582e-01</leafValues></_>
        <_>
          <internalNodes>
            0 -1 14 -7.6777800917625427e-02</internalNodes>
          <leafValues>
            3.5330063104629517e-01 -8.3666342496871948e-01</leafValues></_></weakClassifiers></_>
    <!-- stage 5 -->
    <_>
      <maxWeakCount>3</maxWeakCount>
      <stageThreshold>-1.5566041469573975e+00</stageThreshold>
      <weakClassifiers>
        <_>
          <internalNodes>
            0 -1 17 6.8494565784931183e-02</internalNodes>
          <leafValues>
            -9.4915252923965454e-01 -2.3246492445468903e-01</leafValues></_>
        <_>
          <internalNodes>
            0 -1 6 1.5094283223152161e-01</internalNodes>
          <leafValues>
            -9.0721297264099121e-01 1.1828316003084183e-01</leafValues></_>
        <_>
          <internalNodes>
            0 -1 23 -3.9930568891577423e-04</internalNodes>
          <leafValues>
            -7.2573477029800415e-01 3.8934370875358582e-01</leafValues></_></weakClassifiers></_>
    <!-- stage 6 -->
    <_>
      <maxWeakCount>5</maxWeakCount>
      <stageThreshold>-1.7888984680175781e+00</stageThreshold>
      <weakClassifiers>
        <_>
          <internalNodes>
            0 -1 4 5.6036740541458130e-01</internalNodes>
          <leafValues>
            -8.4066504240036011e-01 1.8980169296264648e-01</leafValues></_>
        <_>
          <internalNodes>
            0 -1 19 1.8653623759746552e-02</internalNodes>
          <leafValues>
            -6.6247475147247314e-01 3.3955585956573486e-01</leafValues></_>
        <_>
          <internalNodes>
            0 -1 11 7.9049810767173767e-02</internalNodes>
          <leafValues>
            -9.5777148008346558e-01 2.7358111739158630e-01</leafValues></_>
        <_>
          <internalNodes>
            0 -1 0 1.7067879438400269e-01</internalNodes>
          <leafValues>
            -6.9539368152618408e-01 4.0480330586433411e-01</leafValues></_>
        <_>
          <internalNodes>
            0 -1 21 -3.2571709016337991e-04</internalNodes>
          <leafValues>
            -8.9441287517547607e-01 3.4358227252960205e-01</leafValues></_></weakClassifiers></_>
    <!-- stage 7 -->
    <_>
      <maxWeakCount>5</maxWeakCount>
      <stageThreshold>-1.8875330686569214e+00</stageThreshold>
      <weakClassifiers>
        <_>
          <internalNodes>
            0 -1 29 -5.2518113516271114e-03</internalNodes>
          <leafValues>
            1.4857143163681030e-01 -8.3460205793380737e-01</leafValues></_>
        <_>
          <internalNodes>
            0 -1 15 5.9933751821517944e-02</internalNodes>
          <leafValues>
            -8.1189978122711182e-01 1.4467164874076843e-01</leafValues></_>
        <_>
          <internalNodes>
            0 -1 28 -1.3050495181232691e-03</internalNodes>
          <leafValues>
            -8.2029497623443604e-01 2.9334068298339844e-01</leafValues></_>
        <_>
          <internalNodes>
            0 -1 7 -3.0419539660215378e-02</internalNodes>
          <leafValues>
            2.8538390994071960e-01 -7.8815281391143799e-01</leafValues></_>
        <_>
          <internalNodes>
            0 -1 20 7.5419113039970398e-02</internalNodes>
          <leafValues>
            -9.2999619245529175e-01 2.9387986660003662e-01</leafValues></_></weakClassifiers></_></stages>
  <features>
    <_>
      <rects>
        <_>
          0 3 8 13 -1.</_>
        <_>
          4 3 4 13 2.</_></rects>
      <tilted>0</tilted></_>
    <_>
      <rects>
        <_>
          0 3 10 15 -1.</_>
        <_>
          5 3 5 15 2.</_></rects>
      <tilted>0</tilted></_>
    <_>
      <rects>
        <_>
          0 4 8 8 -1.</_>
        <_>
          4 4 4 8 2.</_></rects>
      <tilted>0</tilted></_>
    <_>
      <rects>
        <_>
          0 8 6 5 -1.</_>
        <_>
          3 8 3 5 2.</_></rects>
      <tilted>0</tilted></_>
    <_>
      <rects>
        <_>
          1 2 18 16 -1.</_>
        <_>
          7 2 6 16 3.</_></rects>
      <tilted>0</tilted></_>
    <_>
      <rects>
        <_>
          1 9 4 3 -1.</_>
        <_>
          3 9 2 3 2.</_></rects>
      <tilted>0</tilted></_>
    <_>
      <rects>
        <_>
          2 0 16 15 -1.</_>
        <_>
          2 5 16 5 3.</_></rects>
      <tilted>0</tilted></_>
    <_>
      <rects>
        <_>
          2 8 4 12 -1.</_>
        <_>
          2 14 4 6 2.</_></rects>
      <tilted>0</tilted></_>
    <_>
      <rects>
        <_>
          2 10 3 1 -1.</_>
        <_>
          3 10 1 1 3.</_></rects>
      <tilted>0</tilted></_>
    <_>
      <rects>
        <_>
          3 0 14 10 -1.</_>
        <_>
          3 5 14 5 2.</_></rects>
      <tilted>0</tilted></_>
    <_>
      <rects>
        <_>
          3 12 15 8 -1.</_>
        <_>
          3 16 15 4 2.</_></rects>
      <tilted>0</tilted></_>
    <_>
      <rects>
        <_>
          5 5 15 8 -1.</_>
        <_>
          10 5 5 8 3.</_></rects>
      <tilted>0</tilted></_>
    <_>
      <rects>
        <_>
          6 0 8 6 -1.</_>
        <_>
          6 3 8 3 2.</_></rects>
      <tilted>0</tilted></_>
    <_>
      <rects>
        <_>
          6 14 8 6 -1.</_>
        <_>
          6 17 8 3 2.</_></rects>
      <tilted>0</tilted></_>
    <_>
      <rects>
        <_>
          6 14 9 6 -1.</_>
        <_>
          6 17 9 3 2.</_></rects>
      <tilted>0</tilted></_>
    <_>
      <rects>
        <_>
          7 0 6 6 -1.</_>
        <_>
          7 3 6 3 2.</_></rects>
      <tilted>0</tilted></_>
    <_>
      <rects>
        <_>
          7 0 6 9 -1.</_>
        <_>
          7 3 6 3 3.</_></rects>
      <tilted>0</tilted></_>
    <_>
      <rects>
        <_>
          7 0 7 6 -1.</_>
        <_>
          7 3 7 3 2.</_></rects>
      <tilted>0</tilted></_>
    <_>
      <rects>
        <_>
          7 11 6 9 -1.</_>
        <_>
          7 14 6 3 3.</_></rects>
      <tilted>0</tilted></_>
    <_>
      <rects>
        <_>
          8 1 4 6 -1.</_>
        <_>
          8 3 4 2 3.</_></rects>
      <tilted>0</tilted></_>
    <_>
      <rects>
        <_>
          8 6 12 9 -1.</_>
        <_>
          12 6 4 9 3.</_></rects>
      <tilted>0</tilted></_>
    <_>
      <rects>
        <_>
          9 8 3 6 -1.</_>
        <_>
          9 10 3 2 3.</_></rects>
      <tilted>0</tilted></_>
    <_>
      <rects>
        <_>
          10 2 10 16 -1.</_>
        <_>
          15 2 5 16 2.</_></rects>
      <tilted>0</tilted></_>
    <_>
      <rects>
        <_>
          10 15 1 2 -1.</_>
        <_>
          10 16 1 1 2.</_></rects>
      <tilted>0</tilted></_>
    <_>
      <rects>
        <_>
          11 7 9 7 -1.</_>
        <_>
          14 7 3 7 3.</_></rects>
      <tilted>0</tilted></_>
    <_>
      <rects>
        <_>
          12 5 8 12 -1.</_>
        <_>
          16 5 4 12 2.</_></rects>
      <tilted>0</tilted></_>
    <_>
      <rects>
        <_>
          13 8 6 4 -1.</_>
        <_>
          15 8 2 4 3.</_></rects>
      <tilted>0</tilted></_>
    <_>
      <rects>
        <_>
          14 6 6 8 -1.</_>
        <_>
          17 6 3 8 2.</_></rects>
      <tilted>0</tilted></_>
    <_>
      <rects>
        <_>
          14 8 2 4 -1.</_>
        <_>
          15 8 1 4 2.</_></rects>
      <tilted>0</tilted></_>
    <_>
      <rects>
        <_>
          17 9 3 2 -1.</_>
        <_>
          18 9 1 2 3.</_></rects>
      <tilted>0</tilted></_></features></cascade>
</opencv_storage>
