<?xml version="1.0"?>
<opencv_storage>
<stage7>
  <maxWeakCount>5</maxWeakCount>
  <stageThreshold>-1.8875330686569214e+00</stageThreshold>
  <weakClassifiers>
    <_>
      <internalNodes>
        0 -1 77362 -5.2518113516271114e-03</internalNodes>
      <leafValues>
        1.4857143163681030e-01 -8.3460205793380737e-01</leafValues></_>
    <_>
      <internalNodes>
        0 -1 45466 5.9933751821517944e-02</internalNodes>
      <leafValues>
        -8.1189978122711182e-01 1.4467164874076843e-01</leafValues></_>
    <_>
      <internalNodes>
        0 -1 72694 -1.3050495181232691e-03</internalNodes>
      <leafValues>
        -8.2029497623443604e-01 2.9334068298339844e-01</leafValues></_>
    <_>
      <internalNodes>
        0 -1 19358 -3.0419539660215378e-02</internalNodes>
      <leafValues>
        2.8538390994071960e-01 -7.8815281391143799e-01</leafValues></_>
    <_>
      <internalNodes>
        0 -1 52503 7.5419113039970398e-02</internalNodes>
      <leafValues>
        -9.2999619245529175e-01 2.9387986660003662e-01</leafValues></_></weakClassifiers></stage7>
</opencv_storage>
